svm_type c_svc
kernel_type rbf
gamma 0.03125
nr_class 5
total_sv 75
rho 0.833603 0.056457 0.424754 -0.587318 -2.88788 -22.4581 -9.62578 11.2043 22.8494 0.334467
label 0 3 4 1 2
nr_sv 8 22 22 11 12
SV
0 0 0 289.6934697616232 1:0.243705 2:-0.602541 3:-0.660792 4:-0.169692 5:-0.623715 6:-0.52847 
0 610.4515389433644 0 61.56710014852487 1:0.418388 2:-0.485528 3:-0.803673 4:-0.672704 5:-0.548753 6:-0.180622 
0 0 115.7607210366768 0 1:0.766172 2:-0.292106 3:-0.662158 4:-0.621895 5:-0.38929 6:-0.217874 
0 0 0 44.72408224613955 1:0.247184 2:-0.505349 3:-0.767049 4:-0.529327 5:-0.574649 6:0.00841435 
503.8912110485852 53.16389744513163 52.68967997575673 0 1:0.919672 2:-0.336569 3:-0.64574 4:-0.720735 5:-0.436765 6:-0.0654358 
0 0 0 142.6575809259803 1:-0.275277 2:-0.512001 3:-0.887612 4:-0.465589 5:-0.649838 6:-0.332571 
0 0 27.21808235448854 0 1:-0.317769 2:-0.389428 3:-0.87673 4:-0.595452 5:-0.53626 6:-0.549056 
34.37080999697162 0 0 0 1:0.527819 2:-0.427821 3:-0.731896 4:-0.778834 5:-0.495485 6:0.337963 
-0 8192 987.3205971030022 7222.669642186235 1:0.616752 2:-0.930247 3:-0.953376 4:-0.964082 5:-0.906639 6:-0.848705 
-0 8192 8192 0 1:0.545706 2:-0.821405 3:-0.97929 4:-0.977316 5:-0.941166 6:-0.862103 
-0 8192 0 0 1:0.551022 2:-0.880038 3:-0.97059 4:-0.97592 5:-0.938327 6:-0.797402 
-0 5121.088373757932 0 0 1:0.648217 2:-0.956615 3:-0.964539 4:-0.979988 5:-0.994208 6:-0.840536 
-27.31834144308781 8192 0 5921.997962539835 1:0.5748 2:-0.900593 3:-0.944792 4:-0.960665 5:-0.950593 6:-0.799853 
-0 8192 0 0 1:0.621637 2:-0.932437 3:-0.946934 4:-0.971645 5:-0.96445 6:-0.826648 
-0 8192 0 0 1:0.621733 2:-0.970346 3:-0.956257 4:-0.977583 5:-0.957295 6:-0.846745 
-0 0 0 360.8273024822182 1:0.702094 2:-0.824438 3:-0.943215 4:-0.963418 5:-0.871202 6:-0.750837 
-510.943679602469 0 0 0 1:0.980368 2:-0.35465 3:-0.775327 4:-0.906711 5:-0.368732 6:0.00498325 
-0 8192 0 0 1:0.658489 2:-0.726758 3:-0.960105 4:-0.973374 5:-0.862684 6:-0.705253 
-0 8192 0 0 1:0.646205 2:-0.822921 3:-0.999606 4:-0.996176 5:-0.95684 6:-0.803447 
-0 8192 0 0 1:0.592998 2:-0.942715 3:-0.962001 4:-0.969868 5:-0.961838 6:-0.849522 
-0 1876.862203392132 8192 0 1:0.634217 2:-0.730984 3:-0.956626 4:-0.964942 5:-0.768527 6:-0.750674 
-0 0 0 8192 1:0.663973 2:-1 3:-0.96222 4:-0.980152 5:-0.971605 6:-0.799199 
-0 0 2702.956090852719 0 1:0.764563 2:-0.608506 3:-0.923974 4:-0.979336 5:-0.696405 6:-0.528797 
-0 0 0 117.0807181705334 1:0.803355 2:-0.752764 3:-0.973197 4:-0.98479 5:-0.830996 6:-0.536639 
-0 0 0 2128.036588598392 1:0.703818 2:-0.805483 3:-0.990977 4:-0.981078 5:-0.953092 6:-0.761621 
-0 7643.729747972126 0 2849.97169749621 1:0.663015 2:-0.762699 3:-0.959026 4:-0.96822 5:-0.831563 6:-0.572747 
-0 0 4134.210172589421 0 1:0.664288 2:-0.798876 3:-0.973161 4:-0.977415 5:-0.854393 6:-0.755902 
-0 0 3017.892607585882 0 1:0.662276 2:-0.775336 3:-0.949424 4:-0.969133 5:-0.798058 6:-0.693326 
-0 4800.693356355839 0 0 1:0.666997 2:-0.751868 3:-0.965417 4:-0.965338 5:-0.849509 6:-0.700841 
-0 0 8192 0 1:0.750727 2:-0.757717 3:-0.943016 4:-0.993101 5:-0.774661 6:-0.627645 
-556.6452631931905 -0 0 0 1:0.50076 2:-0.51813 3:-0.768515 4:-0.87619 5:-0.548413 6:-0.267217 
-106.9701731953055 -0 0 1306.311421095646 1:0.441644 2:-0.751146 3:-0.896941 4:-0.770579 5:-0.825884 6:-0.0791602 
-0 -0 0 161.164175342941 1:0.677497 2:-0.507616 3:-0.670207 4:-0.788333 5:-0.579306 6:-0.585655 
-0 -0 0 8192 1:0.381991 2:-0.948275 3:-0.971499 4:-0.815124 5:-1 6:-0.917654 
-0 -0 0 8192 1:0.399136 2:-0.922665 3:-0.97081 4:-0.882131 5:-0.95968 6:-0.817335 
-0 -8192 0 0 1:0.614166 2:-0.982814 3:-0.918659 4:-0.989366 5:-0.951275 6:-0.863083 
-0 -0 0 642.454875998564 1:0.589814 2:-0.780842 3:-0.899757 4:-0.931397 5:-0.783406 6:-0.738583 
-0 -8192 0 2419.098626002839 1:0.582127 2:-0.824185 3:-0.990985 4:-0.960283 5:-0.967517 6:-0.8755 
-0 -4007.33595980468 0 0 1:0.555117 2:-0.874983 3:-0.981783 4:-0.981718 5:-0.970242 6:-0.871252 
-0 -1542.67923703818 0 0 1:0.569628 2:-0.84811 3:-0.935532 4:-0.947073 5:-0.830541 6:-0.310514 
-0 -8192 0 8192 1:0.608994 2:-0.846509 3:-0.965527 4:-0.939864 5:-0.936169 6:-0.762764 
-0 -8192 0 0 1:0.562731 2:-0.950549 3:-0.978312 4:-0.983631 5:-0.965245 6:-0.889388 
-0 -0 8192 0 1:0.594722 2:-0.649718 3:-0.896018 4:-0.974412 5:-0.78193 6:-0.756066 
-0 -8192 0 0 1:0.616369 2:-0.761929 3:-0.984593 4:-0.977073 5:-0.950253 6:-0.719141 
-0 -0 363.7462081937384 0 1:0.586102 2:-0.677855 3:-0.740315 4:-0.949181 5:-0.64893 6:-0.4855 
-0 -8192 1717.465456788465 0 1:0.62724 2:-0.801566 3:-0.921093 4:-0.979416 5:-0.876995 6:-0.801323 
-0 -8192 8192 8192 1:0.652024 2:-0.898234 3:-0.971073 4:-0.977208 5:-0.901868 6:-0.743975 
-0 -5700.358484635172 4637.498781716889 0 1:0.669337 2:-0.74289 3:-0.899411 4:-0.971361 5:-0.861548 6:-0.69692 
-0 -8192 0 0 1:0.623457 2:-0.784506 3:-0.972643 4:-0.974297 5:-0.924016 6:-0.733682 
-0 -0 0 8192 1:0.502389 2:-0.849458 3:-0.943924 4:-0.905755 5:-0.868931 6:-0.718487 
-0 -8192 0 6077.269069964598 1:0.658609 2:-0.945411 3:-0.947512 4:-0.975896 5:-0.918337 6:-0.783678 
-0 -8192 0 0 1:0.558134 2:-0.924139 3:-0.969527 4:-0.971934 5:-0.915384 6:-0.838085 
-46.97585891333769 -8192 -8192 2321.145391040832 1:0.636076 2:-0.825448 3:-0.980317 4:-0.99428 5:-0.904935 6:-0.690712 
-0 -8192 -0 0 1:0.644816 2:-0.725789 3:-0.939042 4:-0.995005 5:-0.79272 6:-0.733192 
-0 -0 -90.38436409265401 0 1:0.627154 2:0.114805 3:0.236656 4:-0.961401 5:-0.0299279 6:-0.780573 
-0 -0 -50.7366929046844 0 1:0.927445 2:0.467766 3:1 4:-0.883803 5:0.349991 6:-0.208888 
-75.93900600788089 -0 -0 0 1:0.78204 2:-0.0710804 3:-0.658142 4:-0.976777 5:-0.278437 6:-0.378972 
-72.75361844570347 -0 -0 0 1:0.65989 2:-0.0930398 3:-0.344056 4:-0.923337 5:-0.230621 6:-0.379462 
-0 -1284.865106190188 -5875.722755882656 0 1:0.62906 2:-0.675327 3:-0.925986 4:-0.991558 5:-0.801124 6:-0.702965 
-0 -8192 -0 0 1:0.677849 2:-0.722335 3:-0.943017 4:-0.991559 5:-0.760918 6:-0.745609 
-0 -1365.514361940837 -0 0 1:0.645343 2:-0.78735 3:-0.938116 4:-0.994967 5:-0.786473 6:-0.761948 
-0 -0 -8192 600.6335647475811 1:0.6402 2:-0.784911 3:-0.913224 4:-0.99909 5:-0.799875 6:-0.816028 
-0 -8192 -701.8666338190952 0 1:0.662498 2:-0.792189 3:-0.937501 4:-0.998041 5:-0.82066 6:-0.766849 
-508.4440772475077 -0 -0 -0 1:0.23872 2:-0.649246 3:-0.876964 4:-0.298211 5:-0.771367 6:-0.345478 
-0 -0 -8192 -0 1:0.130084 2:-0.843645 3:-0.977836 4:-0.790234 5:-0.924357 6:-0.851156 
-0 -0 -0 -19.43053846416807 1:0.289753 2:-0.764372 3:-0.85803 4:-0.593214 5:-0.710148 6:0.263622 
-0 -2216.583911473422 -8192 -0 1:0.587826 2:-0.972705 3:-0.97412 4:-0.93016 5:-0.948322 6:-0.77992 
-0 -8192 -8192 -2593.855276461479 1:0.60909 2:-0.876163 3:-0.963514 4:-0.921454 5:-0.89778 6:-0.751001 
-0 -8192 -8192 -0 1:0.640602 2:-0.880543 3:-0.976065 4:-0.939031 5:-0.9381 6:-0.816682 
-0 -0 -1187.515924326015 -0 1:0.583995 2:-0.896381 3:-0.982841 4:-0.913407 5:-0.890851 6:-0.792991 
-0 -8192 -8192 -0 1:0.676999 2:-0.979445 3:-0.955914 4:-0.978899 5:-0.95684 6:-0.780083 
-0 -0 -8192 -308.4931408627651 1:0.590125 2:-0.804219 3:-0.959023 4:-0.883976 5:-0.889148 6:-0.755902 
-30.19815583476035 -0 -0 -0 1:-1 2:-0.899245 3:-0.98802 4:-0.614451 5:-0.966154 6:-0.856874 
-0 -0 -234.982601620225 -0 1:-0.177568 2:-0.85645 3:-0.981839 4:-0.688854 5:-0.926969 6:-0.608202 
-0 -0 -991.7996424583423 -0 1:0.301438 2:-0.812307 3:-0.944757 4:-0.709179 5:-0.884945 6:-0.195981 
